network "unnamedBN" {
// written by aGrUM 2.2.1
}

variable age {
   type discrete[4] {0, 1, 2, 3};
}

variable sex {
   type discrete[2] {0, 1};
}

variable cdr_increase {
   type discrete[3] {0, 1, 2};
}

variable mace {
   type discrete[3] {0, 1, 2};
}

variable ptau181 {
   type discrete[5] {, 0, 1, 2, 3};
}

variable nfl {
   type discrete[5] {, 0, 1, 2, 3};
}

variable gfap {
   type discrete[5] {, 0, 1, 2, 3};
}

variable ab40 {
   type discrete[5] {, 0, 1, 2, 3};
}

variable ab42 {
   type discrete[5] {, 0, 1, 2, 3};
}

probability (age) {
   table 0.250882 0.249118 0.249118 0.250882;
}
probability (sex) {
   table 0.357143 0.642857;
}
probability (cdr_increase) {
   table 0.339212 0.462669 0.198119;
}
probability (mace) {
   table 0.34274 0.420341 0.236919;
}
probability (ptau181 | gfap) {
   () 0.993388 0.00165289 0.00165289 0.00165289 0.00165289;
   (0) 0.000293686 0.448164 0.301322 0.213216 0.0370044;
   (1) 0.000295858 0.30355 0.273964 0.266568 0.155621;
   (2) 0.000295858 0.177811 0.288757 0.273964 0.259172;
   (3) 0.000293686 0.0737151 0.132452 0.242584 0.550954;
}
probability (nfl | age) {
   (0) 0.0425308 0.527592 0.204218 0.147979 0.0776801;
   (1) 0.0357522 0.27646 0.361416 0.219823 0.106549;
   (2) 0.0357522 0.134867 0.297699 0.27646 0.255221;
   (3) 0.0565905 0.0214411 0.0917399 0.309666 0.520562;
}
probability (gfap | nfl) {
   () 0.993388 0.00165289 0.00165289 0.00165289 0.00165289;
   (0) 0.000293686 0.617034 0.279295 0.066373 0.0370044;
   (1) 0.000295858 0.244379 0.355325 0.30355 0.0964497;
   (2) 0.000295858 0.111243 0.244379 0.32574 0.318343;
   (3) 0.000293686 0.0296623 0.117768 0.301322 0.550954;
}
probability (ab40 | nfl) {
   () 0.993388 0.00165289 0.00165289 0.00165289 0.00165289;
   (0) 0.000293686 0.396769 0.293979 0.205874 0.103084;
   (1) 0.000295858 0.30355 0.251775 0.30355 0.140828;
   (2) 0.000295858 0.163018 0.229586 0.281361 0.32574;
   (3) 0.000293686 0.139794 0.220558 0.205874 0.43348;
}
probability (ab42 | ab40) {
   () 0.993388 0.00165289 0.00165289 0.00165289 0.00165289;
   (0) 0.000293686 0.543612 0.323348 0.117768 0.014978;
   (1) 0.000295858 0.236982 0.30355 0.377515 0.0816568;
   (2) 0.000295858 0.148225 0.288757 0.296154 0.266568;
   (3) 0.000293686 0.0737151 0.0810573 0.205874 0.63906;
}

